svm_type c_svc
kernel_type rbf
gamma 0.1
nr_class 2
total_sv 98
rho -0.372809
label 1 -1
nr_sv 49 49
SV
1 1:0.6101349 2:0.95156407 3:0.22711489 4:0.19205298 5:0.97221452 6:0.60072476 
1 1:0.60738939 2:0.95963675 3:0.18709469 4:0.36423841 5:0.91942209 6:0.59902567 
1 1:0.60464388 2:0.95963675 3:0.19359797 4:0.27152318 5:0.99388725 6:0.59562755 
1 1:0.60464388 2:0.96165484 3:0.23061666 4:0.16556291 5:0.9630453 6:0.59562755 
0.6278466767633244 1:0.6 2:8983 3:2568665 4:0.96569 5:2088394 6:7 7:0.20510378 8:0.17218542 9:0.97332591 10:0.59562755 
1 1:0.60464388 2:0.96972758 3:0.19759999 4:0.25827813 5:0.95498753 6:0.59732664 
1 1:0.60464388 2:0.97275484 3:0.2006015 4:0.29801324 5:0.90414006 6:0.59562755 
1 1:0.5991528 2:0.97376388 3:0.1880952 4:0.39072847 5:0.97388166 6:0.59222955 
0.9550245040126405 1:0.59640723 2:0.98385471 3:0.17108661 4:0.38410595 5:0.91997778 6:0.59392852 
1 1:0.5991528 2:0.97679108 3:0.20710479 4:0.39072847 5:0.92303425 6:0.59222955 
1 1:0.58542514 2:0.99293643 3:0.18459342 4:0.28476822 5:0.89941657 6:0.571841 
1 1:0.58542514 2:0.99293643 3:0.18309267 4:0.23841058 5:0.94081694 6:0.57014191 
1 1:0.58267963 2:0.99293643 3:0.18459342 4:0.1258278 5:0.9224785 6:0.57523906 
1 1:0.58267963 2:0.99394554 3:0.16658433 4:0.22516556 5:0.88524592 6:0.57693809 
1 1:0.58542514 2:0.99495459 3:0.17458838 4:0.11920529 5:0.92442352 6:0.58033621 
1 1:0.58542514 2:0.99495459 3:0.1795909 4:0.13245033 5:0.87857741 6:0.5854333 
1 1:0.58542514 2:0.99495459 3:0.19409822 4:0.1589404 5:0.93359268 6:0.58713233 
1 1:0.67328209 2:0.88597375 3:0.12606388 4:0.026490066 5:0.092247851 6:0.72815299 
1 1:0.66229999 2:0.91725534 3:0.11755959 4:0.052980132 5:0.10975271 6:0.72475493 
0.6301325365221001 1:0.62660807 2:0.94651866 3:0.098549992 4:0.046357613 5:0.093637124 6:0.69417214 
1 1:0.62386256 2:0.94550955 3:0.097549491 4:0.043112582 5:0.076685192 6:0.69417214 
1 1:0.61837155 2:0.94853687 3:0.10255201 4:0.033112582 5:0.098638512 6:0.69587117 
1 1:0.76113898 2:0.82744706 3:0.22711489 4:0.13245033 5:0.47207558 6:0.74004626 
1 1:0.7995764 2:0.73158425 3:0.23211741 4:0.11920529 5:0.46151713 6:0.73325014 
1 1:0.80506748 2:0.75681132 3:0.23511893 4:0.059602644 5:0.47485411 6:0.72305584 
1 1:0.80506748 2:0.75479311 3:0.22311287 4:0.052980132 5:0.37788275 6:0.71795869 
1 1:0.80506748 2:0.75277495 3:0.22961615 4:0.10596026 5:0.41706032 6:0.71625972 
1 1:0.80232191 2:0.74268419 3:0.23061666 4:0.066225164 5:0.44178939 6:0.7128616 
1 1:0.80232191 2:0.75176591 3:0.21410832 4:0.039735101 5:0.35065296 6:0.71116257 
1 1:0.80232191 2:0.74167508 3:0.21560907 4:0.092715226 5:0.45623785 6:0.70946348 
1 1:0.7995764 2:0.74772954 3:0.21160705 4:0.1589404 5:0.46846348 6:0.70776445 
1 1:0.7995764 2:0.74672049 3:0.22461362 4:0.059602644 5:0.41706032 6:0.70776445 
1 1:0.7995764 2:0.74974769 3:0.21911085 4:0.21192053 5:0.45846069 6:0.70776445 
1 1:0.79683089 2:0.73965687 3:0.21761009 4:0.16556291 5:0.49263686 6:0.70606542 
1 1:0.79408532 2:0.75681132 3:0.21761009 4:0.1589404 5:0.48207837 6:0.70436639 
1 1:0.79133981 2:0.76387483 3:0.21811034 4:0.072847679 5:0.42928591 6:0.70266736 
1 1:0.79133981 2:0.76690215 3:0.21510883 4:0.1986755 5:0.48013338 6:0.70266736 
1 1:0.7858488 2:0.77497476 3:0.21410832 4:0.17218542 5:0.48068908 6:0.69926924 
1 1:0.7858488 2:0.78102928 3:0.21360807 4:0.18543045 5:0.47596556 6:0.69757015 
1 1:0.78310323 2:0.78002018 3:0.21961109 4:0.066225164 5:0.38871908 6:0.69757015 
1 1:0.78310323 2:0.78708375 3:0.21911085 4:0.13245033 5:0.46429566 6:0.69587117 
1 1:0.78035772 2:0.77699298 3:0.22311287 4:0.08609271 5:0.45207003 6:0.69587117 
1 1:0.78035772 2:0.7860747 3:0.22561413 4:0.072847679 5:0.43734369 6:0.69417214 
1 1:0.78035772 2:0.79818368 3:0.21811034 4:0.059602644 5:0.42734095 6:0.69587117 
1 1:0.77761215 2:0.80423814 3:0.21660958 4:0.072847679 5:0.42845234 6:0.69587117 
1 1:0.77486664 2:0.8072654 3:0.17058635 4:0.13907284 5:0.12197834 6:0.69757015 
1 1:0.73368371 2:0.82946515 3:0.14457323 4:0.092715226 5:0.096693523 6:0.70266736 
1 1:0.7309382 2:0.81937438 3:0.14457323 4:0.072847679 5:0.053626005 6:0.70436639 
1 1:0.73368371 2:0.81937438 3:0.14707449 4:0.066225164 5:0.084745765 6:0.70606542 
-0.5405479808325888 1:0.89017886 2:0.72048438 3:0.99959481 4:0.092715226 5:0.91636562 6:0.8640765 
-1 1:0.76388454 2:0.88900101 3:0.53376967 4:0.25165561 5:0.9333148 6:0.74514347 
-1 1:0.70348293 2:0.93743694 3:0.48624569 4:0.27152318 5:0.87941098 6:0.67208451 
-1 1:0.65680891 2:0.94954592 3:0.43922195 4:0.40397349 5:0.92998058 6:0.63130748 
-1 1:0.63759017 2:0.91624618 3:0.49274898 4:0.37748343 5:0.87746596 6:0.60412276 
-1 1:0.64033574 2:0.87386477 3:0.64532596 4:0.40397349 5:0.88746876 6:0.61431706 
-1 1:0.59091622 2:0.99394554 3:0.42521489 4:0.19205298 5:0.9297027 6:0.59222955 
-1 1:0.60464388 2:0.96569121 3:0.49625075 4:0.17880794 5:0.94470686 6:0.60752088 
-1 1:0.61288047 2:0.96367306 3:0.55077827 4:0.20529801 5:0.92220062 6:0.61601609 
-1 1:0.63484472 2:0.95862764 3:0.47073784 4:0.072847679 5:0.94053906 6:0.64659888 
-1 1:0.66779101 2:0.87689203 3:0.75538152 4:0.23178807 5:0.94109482 6:0.67718172 
-1 1:0.80506748 2:0.70030278 3:0.89445174 4:0.066225164 5:0.8093915 6:0.83179468 
-1 1:0.82154065 2:0.66801208 3:0.89445174 4:0.13907284 5:0.4948597 6:0.80630898 
-1 1:0.6101349 2:0.95963675 3:0.44122297 4:0.066225164 5:0.6385107 6:0.69417214 
-1 1:0.60738939 2:0.94550955 3:0.46973735 4:0.019867551 5:0.95248681 6:0.66698742 
-1 1:0.60738939 2:0.95560038 3:0.42371413 4:0.019867551 5:0.71047515 6:0.6635893 
-1 1:0.5991528 2:0.96064579 3:0.42621538 4:0.059602644 5:0.063350931 6:0.67208451 
-1 1:0.61837155 2:0.95963675 3:0.50125325 4:0.039735101 5:0.10225063 6:0.66868651 
-1 1:0.76937562 2:0.75983852 3:0.35217801 4:0.019867551 5:0.18560712 6:0.72475493 
-1 1:0.85997802 2:0.64883953 3:0.35217801 4:0.039735101 5:0.36621284 6:0.81990135 
-1 1:0.83526826 2:0.63673055 3:0.35217801 4:0.059602644 5:0.22561823 6:0.84538698 
-1 1:0.87645119 2:0.61553985 3:0.35217801 4:0.072847679 5:0.30341762 6:0.9371354 
-1 1:0.91214305 2:0.57820386 3:0.35217801 4:0.072847679 5:0.25646013 6:0.97111624 
-1 1:0.93685287 2:0.56710392 3:0.35217801 4:0.059602644 5:0.22700749 6:0.98810667 
-1 1:0.96430814 2:0.54086781 3:0.35217801 4:0.039735101 5:0.17671575 6:0.94563061 
-1 1:0.75015688 2:0.76992935 3:0.70985854 4:0.15231787 5:0.47818843 6:0.68737596 
-1 1:0.71721059 2:0.78102928 3:0.63331991 4:0.052980132 5:0.34565157 6:0.67718172 
-1 1:0.67602766 2:0.85872853 3:0.552279 4:0.026490066 5:0.47957769 6:0.67888069 
-1 1:0.78310323 2:0.75782037 3:0.69485098 4:0.072847679 5:0.56265628 6:0.77742523 
-1 1:0.80232191 2:0.70736629 3:0.69084895 4:0.033112582 5:0.40483469 6:0.7366482 
-1 1:0.78859425 2:0.72351158 3:0.6398232 4:0.052980132 5:0.48569047 6:0.73834723 
-1 1:0.78310323 2:0.75882947 3:0.25713003 4:0.066225164 5:0.36037788 6:0.7366482 
-1 1:0.25321621 2:0.97981834 3:0.48724619 4:0.23841058 5:0.038899694 6:0.19465327 
-1 1:0.28067148 2:0.96670026 3:0.65032852 4:0.20529801 5:0.91358709 6:0.22863415 
-0.6724557364654763 1:0.28341699 2:0.96770942 3:0.71736234 4:0.1986755 5:0.92525703 6:0.23033319 
-1 1:0.27792594 2:0.96972758 3:0.57729167 4:0.19205298 5:0.057238124 6:0.21843988 
-1 1:0.28890806 2:0.99091828 3:0.59329975 4:0.066225164 5:0.78605169 6:0.23373128 
-1 1:0.30538124 2:0.99192733 3:0.58479542 4:0.052980132 5:0.68519038 6:0.24902266 
-1 1:0.40147474 2:1 3:0.32866615 4:0.099337749 5:0.23673242 6:0.30509111 
-1 1:0.40971133 2:0.99899095 3:0.39169797 4:0.052980132 5:0.89413726 6:0.31698442 
-1 1:0.56620646 2:0.99091828 3:0.36768585 4:0.072847679 5:0.0094470689 6:0.44271365 
-1 1:0.5991528 2:0.97578204 3:0.70335525 4:0.052980132 5:0.34287304 6:0.44271365 
-1 1:0.54149669 2:0.98587286 3:0.30465403 4:0.47019866 5:0.0091692135 6:0.40703374 
-1 1:0.58542514 2:0.96165484 3:0.32216287 4:0.50993377 5:0.079188667 6:0.43082035 
-1 1:0.55247885 2:0.98284566 3:0.27063686 4:0.41059601 5:0.050013892 6:0.40023756 
-1 1:0.55796987 2:0.98082745 3:0.40270352 4:0.33112583 5:0.066407338 6:0.39683947 
-1 1:0.56346095 2:0.98890013 3:0.53176868 4:0.30463573 5:0.0091692135 6:0.3985385 
-1 1:0.56346095 2:0.98890013 3:0.65883279 4:0.42384106 5:0.087246455 6:0.38834423 
-1 1:0.57169753 2:1 3:0.80390602 4:0.21854304 5:0.90969712 6:0.40873277 
