svm_type c_svc
kernel_type rbf
gamma 0.166667
nr_class 3
total_sv 90
rho -1.00219 -1.26135 0.97625
label 3 1 2
nr_sv 47 1 42
SV
0.280274260024089 0 1:0.6101349 2:0.95156407 3:0.22711489 4:0.19205298 5:0.97221452 6:0.60072476 
0 1 1:0.59366179 2:0.98082745 3:0.14357272 4:0.21854304 5:0.95248681 6:0.59222955 
0 1 1:0.59366179 2:0.98284566 3:0.1375697 4:0.1258278 5:0.90469581 6:0.59222955 
0 0.4881995493206036 1:0.59640723 2:0.98385471 3:0.14457323 4:0.21854304 5:0.9355377 6:0.59222955 
0 1 1:0.59640723 2:0.98385471 3:0.14507347 4:0.1258278 5:0.98444009 6:0.59392852 
0 1 1:0.59640723 2:0.98385471 3:0.15407802 4:0.13907284 5:0.9188664 6:0.59562755 
0.08157733616301366 0 1:0.5991528 2:0.97679108 3:0.20710479 4:0.39072847 5:0.92303425 6:0.59222955 
0.6381484038128974 0 1:0.59366179 2:0.97477293 3:0.13857019 4:0.45033112 5:0.92303425 6:0.58883142 
0 1 1:0.58817071 2:0.97780025 3:0.11205681 4:0.1986755 5:0.99916649 6:0.56844288 
0 1 1:0.58542514 2:0.98587286 3:0.12606388 4:0.1986755 5:0.95998889 6:0.56844288 
0 1 1:0.58817071 2:0.99091828 3:0.13256717 4:0.19205298 5:0.96193391 6:0.57353997 
0 1 1:0.58542514 2:0.99293643 3:0.17258736 4:0.14569536 5:0.92859131 6:0.57523906 
0 1 1:0.58267963 2:0.99293643 3:0.18459342 4:0.1258278 5:0.9224785 6:0.57523906 
0 1 1:0.58542514 2:0.99394554 3:0.15257727 4:0.16556291 5:0.90191722 6:0.57693809 
0 1 1:0.58542514 2:0.99495459 3:0.14357272 4:0.20529801 5:0.9188664 6:0.57693809 
0 1 1:0.58542514 2:0.99495459 3:0.16358282 4:0.11920529 5:0.86246181 6:0.57863712 
0 1 1:0.58542514 2:0.99495459 3:0.17458838 4:0.11920529 5:0.92442352 6:0.58033621 
0 1 1:0.58542514 2:0.99495459 3:0.13706943 4:0.1986755 5:0.94026119 6:0.58033621 
0 1 1:0.58542514 2:0.99495459 3:0.16758484 4:0.16556291 5:0.92497915 6:0.58203524 
0 1 1:0.58542514 2:0.99495459 3:0.16208206 4:0.18543045 5:0.89719367 6:0.58373427 
0 1 1:0.58542514 2:0.99495459 3:0.1795909 4:0.13245033 5:0.87857741 6:0.5854333 
0 1 1:0.58542514 2:0.99495459 3:0.19409822 4:0.1589404 5:0.93359268 6:0.58713233 
0 1 1:0.66779101 2:0.9051463 3:0.081041157 4:0.046357613 5:0.087524317 6:0.7264539 
0 1 1:0.62660807 2:0.94046414 3:0.074537873 4:0.019867551 5:0.13503751 6:0.69247305 
0 1 1:0.62660807 2:0.94752777 3:0.085543431 4:0.033112582 5:0.066685192 6:0.69417214 
0 1 1:0.62386256 2:0.93743694 3:0.073537372 4:0.019867551 5:0.79327595 6:0.69417214 
0 1 1:0.62386256 2:0.93743694 3:0.088544942 4:0.013245033 5:0.20783553 6:0.69417214 
0 1 1:0.62111706 2:0.94550955 3:0.067534342 4:0.026490066 5:0.93498194 6:0.69417214 
0 1 1:0.61837155 2:0.94853687 3:0.065033078 4:0.019867551 5:0.98721868 6:0.69587117 
0 1 1:0.61837155 2:0.94853687 3:0.10255201 4:0.033112582 5:0.098638512 6:0.69587117 
0 1 1:0.78859425 2:0.82542884 3:0.17408812 4:0.039735101 5:0.32786885 6:0.76043481 
0 1 1:0.79408532 2:0.82240164 3:0.17258736 4:0.052980132 5:0.3312031 6:0.75873578 
0 0.3438367432656667 1:0.7995764 2:0.80524719 3:0.17658938 4:0.046357613 5:0.32703528 6:0.75363868 
0 1 1:0.79133981 2:0.77699298 3:0.18409318 4:0.052980132 5:0.49597111 6:0.7366482 
0 1 1:0.78310323 2:0.78405648 3:0.18359292 4:0.033112582 5:0.43456516 6:0.73494917 
0 1 1:0.78035772 2:0.7860747 3:0.18259242 4:0.052980132 5:0.46929702 6:0.73494917 
0 1 1:0.77761215 2:0.77699298 3:0.18559393 4:0.033112582 5:0.61155879 6:0.73494917 
0 1 1:0.77212113 2:0.77901107 3:0.18409318 4:0.019867551 5:0.52514589 6:0.73494917 
0 1 1:0.76663005 2:0.78809285 3:0.18109165 4:0.046357613 5:0.9624896 6:0.73494917 
0 1 1:0.76113898 2:0.79717457 3:0.17458838 4:0.052980132 5:0.94470686 6:0.7366482 
0 1 1:0.75564796 2:0.80020177 3:0.17158686 4:0.026490066 5:0.36843571 6:0.73834723 
0 1 1:0.75290239 2:0.81432897 3:0.16308257 4:0.026490066 5:0.51347595 6:0.73834723 
0 1 1:0.75290239 2:0.83955598 3:0.1680851 4:0.079470202 5:0.47818843 6:0.74004626 
0 1 1:0.73642921 2:0.80625635 3:0.148075 4:0.039735101 5:0.44373438 6:0.70606542 
0 1 1:0.73917478 2:0.80524719 3:0.14907549 4:0.046357613 5:0.49069187 6:0.70776445 
0 1 1:0.74192029 2:0.8072654 3:0.14857525 4:0.039735101 5:0.45401499 6:0.70946348 
0 0.1679637074137298 1:0.85723251 2:0.66498488 3:0.17108661 4:0.013245033 5:0.38594052 6:0.81140614 
-1 1 1:0.5991528 2:0.97376388 3:0.1880952 4:0.39072847 5:0.97388166 6:0.59222955 
-1 -0 1:0.67328209 2:0.88597375 3:0.12606388 4:0.026490066 5:0.092247851 6:0.72815299 
-1 -0 1:0.66229999 2:0.91725534 3:0.11755959 4:0.052980132 5:0.10975271 6:0.72475493 
-1 -0 1:0.65955442 2:0.92532796 3:0.083542421 4:0.033112582 5:0.91247571 6:0.72305584 
-1 -0 1:0.65406334 2:0.926337 3:0.05602853 4:0.019867551 5:0.56293416 6:0.72135681 
-1 -0 1:0.65406334 2:0.91927344 3:0.062531814 4:0.039735101 5:0.70686299 6:0.72135681 
-1 -0 1:0.65406334 2:0.91220993 3:0.062031563 4:0.052980132 5:0.69602668 6:0.71965778 
-1 -0 1:0.65131783 2:0.90010089 3:0.068034589 4:0.066225164 5:0.65018064 6:0.71795869 
-1 -0 1:0.65131783 2:0.90615535 3:0.065533333 4:0.033112582 5:0.67852181 6:0.71625972 
-1 -0 1:0.64857233 2:0.91321898 3:0.066033579 4:0.019867551 5:0.53903866 6:0.7128616 
-1 -0 1:0.64582682 2:0.92028254 3:0.061531309 4:0.018867551 5:0.52903866 6:0.71116257 
-1 -0 1:0.64308125 2:0.91220993 3:0.05802954 4:0.052980132 5:0.67296469 6:0.70776445 
-1 -0 1:0.64033574 2:0.91120076 3:0.059530299 4:0.019867551 5:0.73770493 6:0.70606542 
-1 -0 1:0.64033574 2:0.91120076 3:0.059030045 4:0.039735101 5:0.77076966 6:0.70606542 
-1 -0 1:0.63759017 2:0.91019171 3:0.063032068 4:0.066225164 5:0.64490139 6:0.70436639 
-1 -0 1:0.63759017 2:0.91422808 3:0.06003055 4:0.052980132 5:0.66212839 6:0.70266736 
-1 -0 1:0.63759017 2:0.92028254 3:0.065533333 4:0.033112582 5:0.72270077 6:0.70266736 
-1 -0 1:0.63484472 2:0.9233098 3:0.069035098 4:0.052980132 5:0.62378442 6:0.70096827 
-1 -0 1:0.63484472 2:0.92734617 3:0.066033579 4:0.039735101 5:0.77716035 6:0.69926924 
-1 -0 1:0.63209915 2:0.926337 3:0.065033078 4:0.039735101 5:0.7390942 6:0.69757015 
-1 -0 1:0.62935364 2:0.92835522 3:0.074037619 4:0.052980132 5:0.73603779 6:0.69587117 
-1 -0 1:0.62660807 2:0.92936426 3:0.071036108 4:0.039735101 5:0.97610444 6:0.69587117 
-1 -0 1:0.62660807 2:0.93440968 3:0.075538382 4:0.041735101 5:0.87610444 6:0.69417214 
-1 -0 1:0.62660807 2:0.93844604 3:0.081041157 4:0.051735101 5:0.77610444 6:0.69247305 
-1 -0 1:0.62660807 2:0.94651866 3:0.098549992 4:0.046357613 5:0.093637124 6:0.69417214 
-1 -0 1:0.62386256 2:0.94550955 3:0.097549491 4:0.043112582 5:0.086685192 6:0.69417214 
-1 -0 1:0.62660807 2:0.94450051 3:0.076038629 4:0.019867551 5:0.83828849 6:0.69417214 
-1 -0.1230803515197318 1:0.62660807 2:0.94349146 3:0.086043678 4:0.052980132 5:0.77160329 6:0.69417214 
-1 -0 1:0.62386256 2:0.93945509 3:0.083042167 4:0.039735101 5:0.74965268 6:0.69587117 
-1 -0 1:0.62386256 2:0.93945509 3:0.091046207 4:0.023245033 5:0.30783553 6:0.69417214 
-1 -0 1:0.62386256 2:0.94248235 3:0.082041658 4:0.013245033 5:0.47013059 6:0.69417214 
-1 -0 1:0.62386256 2:0.94752777 3:0.069535352 4:0.052980132 5:0.81050295 6:0.69417214 
-1 -0 1:0.62111706 2:0.94853687 3:0.068034589 4:0.033112582 5:0.69130313 6:0.69417214 
-1 -0 1:0.62111706 2:0.94651866 3:0.066033579 4:0.039735101 5:0.81689358 6:0.69417214 
-1 -0 1:0.62111706 2:0.94550955 3:0.065533333 4:0.039735101 5:0.74353993 6:0.69417214 
-1 -0 1:0.62111706 2:0.94550955 3:0.098049745 4:0.026490066 5:0.93970555 6:0.69417214 
-1 -0 1:0.62111706 2:0.94550955 3:0.068534844 4:0.039735101 5:0.92609054 6:0.69417214 
-1 -0 1:0.62111706 2:0.94550955 3:0.069535352 4:0.026490066 5:0.95776612 6:0.69417214 
-1 -0 1:0.62111706 2:0.94450051 3:0.073537372 4:0.013245033 5:0.81105864 6:0.69417214 
-1 -0 1:0.62111706 2:0.94651866 3:0.069535352 4:0.033112582 5:0.98971939 6:0.69587117 
-1 -0.8769196484802682 1:0.61837155 2:0.94651866 3:0.071036108 4:0.039735101 5:0.96276742 6:0.69587117 
-1 -0 1:0.61562598 2:0.94853687 3:0.088044688 4:0.019867551 5:0.85718256 6:0.69757015 
-1 -0 1:0.61288047 2:0.95055497 3:0.084542923 4:0.017867551 5:0.75718256 6:0.69757015 
