svm_type c_svc
kernel_type rbf
gamma 0.166667
nr_class 2
total_sv 36
rho 0.268523
label 1 -1
nr_sv 17 19
SV
1 1:0.62386256 2:0.93037337 3:0.30265301 4:0.33112583 5:0.9146986 6:0.60752088 
1 1:0.62111706 2:0.92431885 3:0.30965656 4:0.38410595 5:0.90997499 6:0.60582185 
1 1:0.62386256 2:0.91927344 3:0.29314822 4:0.33112583 5:0.90191722 6:0.60752088 
1 1:0.62660807 2:0.91523713 3:0.28564444 4:0.41721854 5:0.93942767 6:0.60752088 
1 1:0.62386256 2:0.92431885 3:0.31666008 4:0.33774832 5:0.92442352 6:0.60072476 
1 1:0.61288047 2:0.94046414 3:0.30315328 4:0.23178807 5:0.95387608 6:0.60072476 
0.2045231402703045 1:0.59366179 2:0.97780025 3:0.23912095 4:0.23178807 5:0.96971381 6:0.59053046 
1 1:0.59640723 2:0.96165484 3:0.43121791 4:0.079470202 5:0.00055570994 6:0.67208451 
1 1:0.78310323 2:0.75882947 3:0.25713003 4:0.066225164 5:0.36037788 6:0.7366482 
1 1:0.76937562 2:0.76992935 3:0.43271866 4:0.052980132 5:0.13086969 6:0.70266736 
1 1:0.76663005 2:0.79717457 3:0.46123305 4:0.092715226 5:0.11447625 6:0.70436639 
1 1:0.75564796 2:0.81432897 3:0.42171311 4:0.10596026 5:0.076410115 6:0.70436639 
1 1:0.74466586 2:0.81735623 3:0.3491765 4:0.072847679 5:0.15587664 6:0.70266736 
1 1:0.74192029 2:0.82139254 3:0.25813055 4:0.099337749 5:0.091414288 6:0.70266736 
1 1:0.73917478 2:0.82946515 3:0.31215781 4:0.08609271 5:0.030841902 6:0.70266736 
0.0414824237667701 1:0.98627234 2:0.51160443 3:0.23261766 4:0.099337749 5:0.29869407 6:0.93373728 
1 1:0.98078126 2:0.54288596 3:0.23511893 4:0.08609271 5:0.28313422 6:0.92014492 
-1 1:0.58267963 2:0.92936426 3:0.99972987 4:0.3708609 5:0.94470686 6:0.56334579 
-1 1:0.58267963 2:0.92734617 3:0.99965984 4:0.21854304 5:0.0094470689 6:0.55994767 
-1 1:0.58817071 2:0.9021191 3:0.99989498 4:0.43708608 5:0.95276463 6:0.55824864 
-0.9692772311029732 1:0.58267963 2:0.9021191 3:0.9996298 4:0.3708609 5:0.93803835 6:0.54805434 
-1 1:0.58267963 2:0.9051463 3:0.99984497 4:0.38410595 5:0.97082525 6:0.54975343 
-1 1:0.92312521 2:0.4248234 3:0.99950475 6:0.98470861 
-0.4628731189213003 1:0.93685287 2:0.431887 3:0.99997002 6:0.95582485 
-0.8521392098726099 1:0.9450894 2:0.43390515 3:1 4:0.052980132 5:0.97693807 6:0.95582485 
-1 1:0.94783491 2:0.42986882 3:0.99982494 6:0.94563061 
-1 1:0.65955442 2:0.96972758 3:0.70185453 4:0.072847679 5:0.31342041 6:0.59222955 
-1 1:0.65680891 2:0.97477293 3:0.60630631 4:0.08609271 5:0.46040568 6:0.59222955 
-1 1:0.66229999 2:0.97981834 3:0.49124822 4:0.099337749 5:0.24979162 6:0.59392852 
-1 1:0.69799185 2:0.91523713 3:0.99993497 4:0.13907284 5:0.0033342596 6:0.6635893 
-0.3029949404470985 1:0.68151867 2:0.94248235 3:0.99976993 4:0.11258278 5:0.99833286 6:0.65849221 
-0.06775596504646499 1:0.68426418 2:0.96670026 3:0.99975491 4:0.11258278 5:0.96832454 6:0.66528839 
-0.5853828173292948 1:0.69250077 2:0.93945509 3:0.99966478 6:0.65509409 
-1 1:0.68151867 2:0.95257318 3:0.99953973 6:0.65849221 
-1 1:0.64308125 2:0.91624618 3:0.99987996 4:0.37748343 5:0.93220341 6:0.61601609 
-0.005582281317333172 1:0.5991528 2:0.95862764 3:0.99991 4:0.31788081 5:0.92303425 6:0.5854333 
